<Nnet> 
<Splice> 440 40 
[ -5 -4 -3 -2 -1 0 1 2 3 4 5 ]
<AddShift> 440 440 
<LearnRateCoef> 0  [ -0.0003088693 0.000314843 0.0003763262 1.408418e-05 5.085232e-05 -0.0001060896 -3.993778e-05 5.342824e-05 -5.385653e-05 0.0002214626 0.0003739754 1.5687e-05 0.0004126432 -4.307854e-05 -5.739411e-05 6.645224e-05 0.000355305 -5.852835e-05 0.0001549147 -0.0002470204 0.0002011786 1.517323e-05 5.613154e-05 -2.753725e-05 2.365347e-05 -7.047725e-05 3.52151e-05 0.0001649628 2.139317e-06 -4.874676e-05 -3.886872e-05 -0.0001545219 8.397085e-05 -7.700753e-05 0.0002439489 -3.396377e-05 2.656095e-05 0.0001081502 0.0002143368 8.934038e-05 -0.0002482797 0.0002645755 0.0003202606 1.363246e-05 3.581081e-05 -0.0001185694 -5.600403e-05 4.000372e-05 -6.009204e-05 0.0002422684 0.0003553766 1.399366e-05 0.0003484155 -1.179485e-05 -3.34023e-05 4.691993e-05 0.0003625792 -4.557817e-05 0.000113687 -0.0002194255 0.0002103642 6.704562e-06 3.018606e-05 4.911579e-06 7.360865e-05 -7.85147e-05 6.623061e-05 0.0001203447 1.487163e-07 -4.423169e-05 -4.880947e-05 -0.0001441889 6.382914e-05 -7.860979e-05 0.0002069216 -1.445684e-05 4.749284e-05 8.592944e-05 0.000119589 9.924744e-05 -0.0001919664 0.0002099855 0.0002585259 2.904441e-05 2.626292e-05 -0.0001128844 -7.196668e-05 3.039371e-05 -9.008946e-05 0.0002610831 0.0002918298 4.754421e-06 0.0002701068 -8.321803e-06 -1.78954e-05 8.90443e-06 0.0003229541 -2.536431e-05 0.0001060413 -0.0001856778 0.0002026448 2.009182e-06 7.193903e-06 3.943892e-06 9.473646e-05 -8.081901e-05 5.286055e-05 9.252541e-05 1.253537e-05 -3.666004e-05 -1.627116e-05 -0.0001613345 5.253945e-05 -0.0001095899 0.0001524764 3.363858e-06 4.723106e-05 4.516258e-05 5.54256e-05 0.000116128 -0.0001384858 0.0001517635 0.0001915499 4.736368e-05 1.99604e-05 -0.0001016556 -7.847355e-05 2.480306e-05 -0.0001301396 0.0002788259 0.0002384649 -1.072181e-06 0.0001813116 -1.711683e-05 -1.589636e-05 -2.481845e-05 0.0002707613 -5.979493e-06 0.0001128804 -0.0001440246 0.0001962398 9.048183e-07 3.205558e-06 4.964594e-06 9.404869e-05 -7.803523e-05 2.518127e-05 8.382078e-05 1.511732e-05 -2.028466e-05 -3.825964e-07 -0.0001510247 3.308883e-05 -9.10728e-05 8.236284e-05 2.330646e-05 2.660947e-05 -6.242677e-06 2.874602e-05 0.0001276456 -8.207783e-05 9.471536e-05 0.00015148 5.925406e-05 1.577547e-05 -0.0001012468 -8.143603e-05 2.513365e-05 -0.0001749101 0.0002548588 0.0002019233 -4.339665e-06 9.90943e-05 -3.154263e-05 2.20621e-06 -3.859479e-05 0.0002346173 1.545634e-05 0.0001381674 -9.903385e-05 0.0001805415 4.788001e-06 7.588087e-06 2.093433e-05 8.155139e-05 -6.180949e-05 4.596867e-05 8.934043e-05 1.057936e-05 -6.985367e-06 -1.033255e-05 -0.0001148035 1.759096e-05 -2.552965e-05 5.267972e-05 4.022134e-05 3.606228e-05 -4.237349e-05 -8.387395e-06 0.0001442274 -3.27758e-05 4.523868e-05 0.0001285392 7.053884e-05 8.767402e-06 -9.790352e-05 -0.0001106474 2.541417e-05 -0.000203726 0.0002333294 0.0001825639 -8.704185e-06 1.914485e-05 -1.18535e-05 2.530801e-05 -3.769495e-05 0.0001821483 3.168938e-05 0.0001431984 -4.665491e-05 0.0001949527 6.909779e-06 1.594773e-05 2.761813e-06 8.111911e-05 -4.305657e-05 1.70052e-05 9.521364e-05 -5.676767e-06 1.069244e-05 1.369972e-07 -0.0001099092 6.526834e-07 2.812873e-06 3.99985e-05 5.272729e-05 5.459092e-05 -6.192588e-05 -4.015297e-05 0.0001592326 1.652623e-05 -4.237999e-06 0.0001055983 8.182363e-05 1.759338e-06 -9.456028e-05 -0.0001398588 2.569469e-05 -0.0002325418 0.0002118 0.0001632046 -1.306871e-05 -6.08046e-05 7.835634e-06 4.840981e-05 -3.67951e-05 0.0001296793 4.792242e-05 0.0001482294 5.724041e-06 0.0002093638 9.031558e-06 2.430737e-05 -1.541071e-05 8.068683e-05 -2.430365e-05 -1.195827e-05 0.0001010868 -2.19329e-05 2.837025e-05 1.060655e-05 -0.0001050149 -1.628559e-05 3.11554e-05 2.731727e-05 6.523323e-05 7.311957e-05 -8.147825e-05 -7.191855e-05 0.0001742378 7.137146e-05 -5.490795e-05 9.066787e-05 0.0001046419 -4.68448e-06 -8.8049e-05 -0.0001687847 2.722155e-05 -0.0002672453 0.0001904164 0.0001540382 -1.943582e-05 -0.0001365858 2.30932e-05 7.306543e-05 -3.380406e-05 7.05267e-05 6.235222e-05 0.0001674599 5.940316e-05 0.0002280081 8.836528e-06 3.803694e-05 -2.820761e-05 7.269398e-05 3.440786e-06 -1.775243e-05 9.031907e-05 -2.643807e-05 5.129129e-05 1.27433e-06 -7.326926e-05 -3.629815e-05 5.51921e-05 -3.187999e-06 7.415123e-05 7.947585e-05 -9.006727e-05 -0.0001076512 0.0001790194 0.0001260154 -0.0001067055 8.472581e-05 0.0001148819 -9.083013e-06 -8.212618e-05 -0.0001957587 2.974244e-05 -0.0003047675 0.0001667417 0.0001490804 -3.139912e-05 -0.0002108058 2.393082e-05 0.000102121 -2.322502e-05 7.540619e-07 7.50918e-05 0.0001948587 0.0001129768 0.0002517717 7.008368e-06 5.821055e-05 -6.155637e-05 5.810597e-05 2.945744e-05 -2.956667e-05 8.540862e-05 -3.000673e-05 6.980046e-05 -1.765727e-05 -3.956379e-05 -5.008367e-05 6.119555e-05 -3.186751e-05 8.00596e-05 7.60785e-05 -7.963531e-05 -0.0001418554 0.0001871326 0.0001739514 -0.000160276 6.87439e-05 0.0001227053 -1.523708e-05 -8.010932e-05 -0.0002237792 3.12999e-05 -0.0003446222 0.0001372586 0.0001437871 -4.422106e-05 -0.0002923693 3.051726e-05 0.0001221735 -7.158103e-06 -6.231698e-05 8.411084e-05 0.0002079861 0.0001618353 0.0002814465 2.694165e-06 8.547889e-05 -0.0001101639 2.473701e-05 4.614796e-05 -6.972475e-05 0.0001012419 -3.791609e-05 8.655059e-05 -2.369907e-05 -2.723063e-05 -5.991911e-05 5.682923e-05 -6.122522e-05 8.510098e-05 9.503878e-05 -6.115807e-05 -0.0001655198 0.0001957941 0.0002181159 -0.0002190111 5.836521e-05 0.000129444 -2.399512e-05 -9.710962e-05 -0.0002482901 3.641517e-05 -0.0003801578 9.783787e-05 0.0001421572 -5.388953e-05 -0.000369351 3.268935e-05 0.0001384067 1.145558e-05 -0.0001151847 8.828062e-05 0.0002097393 0.0002127804 0.0003133084 -1.019561e-06 0.0001248748 -0.0001449415 1.982568e-05 6.179021e-05 -8.854397e-05 0.0001064353 -5.590671e-05 0.0001052393 -2.534101e-05 -1.226016e-05 -7.601498e-05 6.232777e-05 -9.851868e-05 8.893345e-05 0.0001531897 -5.849521e-05 -0.0001811231 0.0001980367 ]
<Rescale> 440 440 
<LearnRateCoef> 0  [ 0.5745964 0.6521061 0.7534088 0.8119 0.8123527 0.7998703 0.8286825 0.8089194 0.8593856 0.768446 0.7519992 0.7395188 0.8191562 0.9514616 0.9421079 0.9246336 0.7812112 0.8846157 0.9233231 0.8357976 0.9462616 0.9645141 1.001601 0.8754539 0.9839849 0.929425 0.8287682 0.7958313 1.00143 0.9878559 0.8439133 0.8424829 0.9595747 0.9940709 0.9469034 1.014606 0.9868829 0.9589308 0.7506601 1.061263 0.5745776 0.6521264 0.7534139 0.8118943 0.8123969 0.799807 0.8286309 0.8089586 0.8593829 0.7683587 0.751989 0.7394971 0.81925 0.9514116 0.941903 0.9245663 0.7810239 0.8846946 0.9232423 0.8358462 0.9460827 0.9646077 1.001601 0.8753037 0.983761 0.9294149 0.8285975 0.7958211 1.001276 0.987843 0.8438827 0.8424277 0.9595997 0.9938661 0.9469584 1.01461 0.9867054 0.9587141 0.7507044 1.061251 0.5745608 0.6521477 0.7534189 0.8118953 0.8124424 0.7997416 0.8285804 0.8089976 0.8593783 0.7682681 0.7519928 0.739469 0.8193498 0.9513571 0.9416932 0.9244951 0.7808453 0.88477 0.9231514 0.8358968 0.9459044 0.9647031 1.001599 0.8751654 0.983545 0.9294034 0.8284228 0.7958153 1.001127 0.9878387 0.8438408 0.84236 0.9596279 0.9936661 0.9470257 1.014609 0.9865124 0.9584818 0.7507358 1.061242 0.5745445 0.6521682 0.7534301 0.8119309 0.812488 0.7996776 0.8285258 0.809024 0.8593475 0.7681761 0.75205 0.7394416 0.8194463 0.9513087 0.941472 0.9244109 0.7806804 0.8848366 0.9230604 0.8359386 0.9457023 0.9647934 1.001548 0.8750254 0.9833291 0.9293389 0.8282542 0.7959081 1.000993 0.9878387 0.8438536 0.842356 0.9596531 0.9935958 0.9470541 1.014588 0.9865291 0.9582397 0.7507582 1.06121 0.5745281 0.652187 0.7534277 0.8119919 0.8125299 0.799614 0.8284568 0.8090349 0.8593076 0.768086 0.752135 0.7394115 0.819528 0.9513245 0.9412585 0.9243152 0.7805125 0.8848879 0.9231393 0.8359636 0.9454437 0.9648716 1.001466 0.8749046 0.9832453 0.9292064 0.8281012 0.7960579 1.000933 0.9878402 0.8438855 0.8423625 0.9596718 0.9935526 0.9470396 1.014548 0.9866053 0.9581536 0.7507877 1.061166 0.5745108 0.6522028 0.7534885 0.8120614 0.8125619 0.7995536 0.8283687 0.809025 0.8593051 0.7679976 0.7522268 0.7393746 0.8195755 0.9514095 0.9410616 0.9242387 0.780352 0.8849174 0.923423 0.8359613 0.9451158 0.9649189 1.001403 0.874785 0.9832817 0.9290637 0.8279548 0.7962246 1.000946 0.9878305 0.8439823 0.8424376 0.9596622 0.9935396 0.9471365 1.014542 0.9866955 0.9582363 0.7508068 1.06116 0.5744933 0.6522185 0.7535493 0.8121308 0.8125939 0.7994932 0.8282806 0.8090151 0.8593026 0.7679093 0.7523187 0.7393377 0.8196231 0.9514946 0.9408647 0.9241624 0.7801918 0.884947 0.9237069 0.835959 0.9447884 0.9649662 1.001341 0.8746654 0.9833181 0.9289211 0.8278085 0.7963913 1.00096 0.9878207 0.8440792 0.8425128 0.9596526 0.9935268 0.9472334 1.014536 0.9867857 0.9583191 0.7508259 1.061154 0.5744733 0.6522257 0.753606 0.8121944 0.8126073 0.7994445 0.8282297 0.8089802 0.8593161 0.7678356 0.7524035 0.7392979 0.8196316 0.9515802 0.9407433 0.9241458 0.7800695 0.8849416 0.9239578 0.8359256 0.9446172 0.9649677 1.001309 0.8746108 0.9834073 0.92888 0.8277673 0.7965629 1.001015 0.9877987 0.8442077 0.8426161 0.959615 0.9935842 0.9473732 1.01456 0.9869398 0.9584491 0.7508541 1.061167 0.5744528 0.6522254 0.7536552 0.812258 0.8126068 0.7994158 0.8281944 0.8089269 0.8593209 0.7677798 0.7524962 0.7392554 0.8196206 0.9516933 0.9407189 0.9241418 0.7800242 0.8849078 0.924259 0.8358667 0.9444996 0.9649405 1.00126 0.8745677 0.9836024 0.9288239 0.8277356 0.7967374 1.001146 0.9877736 0.8443242 0.8427205 0.959572 0.9936375 0.9474692 1.01455 0.9870828 0.9587278 0.7509069 1.061165 0.574433 0.65222 0.753709 0.8123201 0.8125982 0.7994115 0.8281561 0.8088614 0.8593245 0.7677626 0.7525838 0.7392126 0.819603 0.9518255 0.9407232 0.9241215 0.7800332 0.8848578 0.9246152 0.8357933 0.9443347 0.9649017 1.001189 0.8745823 0.9838371 0.9287053 0.8277693 0.796908 1.001305 0.9877504 0.8444585 0.8428456 0.9595295 0.9938107 0.9475057 1.014516 0.9873667 0.9590378 0.7509691 1.061147 0.574414 0.6522141 0.7537621 0.8123823 0.81259 0.799407 0.8281151 0.808795 0.8593308 0.7677476 0.7526706 0.7391704 0.8195883 0.9519649 0.9407306 0.9241052 0.7800406 0.8848096 0.9249555 0.8357207 0.944171 0.9648648 1.001122 0.8746009 0.9840619 0.9285824 0.8277873 0.7970828 1.001456 0.987727 0.84458 0.8429726 0.9594871 0.9940035 0.9475445 1.014491 0.9876453 0.9593431 0.7510229 1.06113 ]
</Nnet> 
